FANN_FLO_2.1
num_layers=3
learning_rate=0.100000
connection_rate=1.000000
network_type=0
learning_momentum=0.000000
training_algorithm=2
train_error_function=1
train_stop_function=0
cascade_output_change_fraction=0.010000
quickprop_decay=-0.000100
quickprop_mu=1.750000
rprop_increase_factor=1.200000
rprop_decrease_factor=0.500000
rprop_delta_min=0.000000
rprop_delta_max=50.000000
rprop_delta_zero=0.100000
cascade_output_stagnation_epochs=12
cascade_candidate_change_fraction=0.010000
cascade_candidate_stagnation_epochs=12
cascade_max_out_epochs=150
cascade_min_out_epochs=50
cascade_max_cand_epochs=150
cascade_min_cand_epochs=50
cascade_num_candidate_groups=2
bit_fail_limit=3.49999994039535522461e-01
cascade_candidate_limit=1.00000000000000000000e+03
cascade_weight_multiplier=4.00000005960464477539e-01
cascade_activation_functions_count=10
cascade_activation_functions=3 5 7 8 10 11 14 15 16 17 
cascade_activation_steepnesses_count=4
cascade_activation_steepnesses=2.50000000000000000000e-01 5.00000000000000000000e-01 7.50000000000000000000e-01 1.00000000000000000000e+00 
layer_sizes=3 9 3 
scale_included=0
neurons (num_inputs, activation_function, activation_steepness)=(0, 0, 0.00000000000000000000e+00) (0, 0, 0.00000000000000000000e+00) (0, 0, 0.00000000000000000000e+00) (3, 3, 5.00000000000000000000e-01) (3, 3, 5.00000000000000000000e-01) (3, 3, 5.00000000000000000000e-01) (3, 3, 5.00000000000000000000e-01) (3, 3, 5.00000000000000000000e-01) (3, 3, 5.00000000000000000000e-01) (3, 3, 5.00000000000000000000e-01) (3, 3, 5.00000000000000000000e-01) (0, 3, 0.00000000000000000000e+00) (9, 0, 5.00000000000000000000e-01) (9, 0, 5.00000000000000000000e-01) (0, 0, 0.00000000000000000000e+00) 
connections (connected_to_neuron, weight)=(0, -1.64805173873901367188e+00) (1, 4.71840381622314453125e-01) (2, -1.01347887516021728516e+00) (0, -1.78341555595397949219e+00) (1, 2.05555891990661621094e+00) (2, -4.70611631870269775391e-01) (0, -3.72591376304626464844e+00) (1, -2.35580611228942871094e+00) (2, 3.42935466766357421875e+00) (0, -1.11149644851684570312e+01) (1, 1.68399488925933837891e+00) (2, 1.07400827407836914062e+01) (0, -4.37117195129394531250e+00) (1, 4.40051126480102539062e+00) (2, -3.63722491264343261719e+00) (0, -1.71925163269042968750e+00) (1, 1.97379922866821289062e+00) (2, -1.63476914167404174805e-01) (0, -7.95929002761840820312e+00) (1, 1.07150599360466003418e-01) (2, 4.90767288208007812500e+00) (0, 2.60519766807556152344e+00) (1, 4.35142707824707031250e+00) (2, -6.23217678070068359375e+00) (3, -6.07010662555694580078e-01) (4, -2.62325310707092285156e+00) (5, 6.88218832015991210938e+00) (6, -1.16835939884185791016e+00) (7, 2.76306819915771484375e+00) (8, -2.85954403877258300781e+00) (9, 1.24527823925018310547e+00) (10, 1.23469820022583007812e+01) (11, -1.20193314552307128906e+00) (3, 7.77191209793090820312e+00) (4, 3.98839616775512695312e+00) (5, -6.00954389572143554688e+00) (6, 3.91768431663513183594e+00) (7, -6.27299785614013671875e+00) (8, 3.21247673034667968750e+00) (9, -1.16146957874298095703e+00) (10, -1.59336071014404296875e+01) (11, -7.88623452186584472656e-01) 
