FANN_FLO_2.1
num_layers=3
learning_rate=0.100000
connection_rate=1.000000
network_type=0
learning_momentum=0.000000
training_algorithm=2
train_error_function=1
train_stop_function=0
cascade_output_change_fraction=0.010000
quickprop_decay=-0.000100
quickprop_mu=1.750000
rprop_increase_factor=1.200000
rprop_decrease_factor=0.500000
rprop_delta_min=0.000000
rprop_delta_max=50.000000
rprop_delta_zero=0.100000
cascade_output_stagnation_epochs=12
cascade_candidate_change_fraction=0.010000
cascade_candidate_stagnation_epochs=12
cascade_max_out_epochs=150
cascade_min_out_epochs=50
cascade_max_cand_epochs=150
cascade_min_cand_epochs=50
cascade_num_candidate_groups=2
bit_fail_limit=3.49999999999999977796e-01
cascade_candidate_limit=1.00000000000000000000e+03
cascade_weight_multiplier=4.00000000000000022204e-01
cascade_activation_functions_count=10
cascade_activation_functions=3 5 7 8 10 11 14 15 16 17 
cascade_activation_steepnesses_count=4
cascade_activation_steepnesses=2.50000000000000000000e-01 5.00000000000000000000e-01 7.50000000000000000000e-01 1.00000000000000000000e+00 
layer_sizes=3 9 3 
scale_included=0
neurons (num_inputs, activation_function, activation_steepness)=(0, 0, 0.00000000000000000000e+00) (0, 0, 0.00000000000000000000e+00) (0, 0, 0.00000000000000000000e+00) (3, 3, 5.00000000000000000000e-01) (3, 3, 5.00000000000000000000e-01) (3, 3, 5.00000000000000000000e-01) (3, 3, 5.00000000000000000000e-01) (3, 3, 5.00000000000000000000e-01) (3, 3, 5.00000000000000000000e-01) (3, 3, 5.00000000000000000000e-01) (3, 3, 5.00000000000000000000e-01) (0, 3, 0.00000000000000000000e+00) (9, 0, 5.00000000000000000000e-01) (9, 0, 5.00000000000000000000e-01) (0, 0, 0.00000000000000000000e+00) 
connections (connected_to_neuron, weight)=(0, -2.53848421975631621805e+00) (1, 3.59960109659224036793e-01) (2, -6.20626780445117723350e-02) (0, -1.00983076604749459904e+01) (1, 8.28957472705269005075e+00) (2, 2.01948375887664038908e-01) (0, -2.42971822403716641858e+00) (1, 5.10662419966248837255e-01) (2, 5.21921113348615683947e-02) (0, -1.85352926046318633446e+00) (1, 1.26814534402309919692e+00) (2, -1.42082882766203316693e-01) (0, -1.92310094804285225401e+00) (1, 1.88518663140338116335e+00) (2, 2.16589691369978604163e-01) (0, -2.99980000741615571158e+00) (1, -8.97558312923481427248e-01) (2, 1.05977182263958011332e-01) (0, -2.63049204369098177381e+00) (1, 3.21769634755955102889e-01) (2, 9.98499677868488200172e-02) (0, -5.76580728144454823791e+00) (1, 1.08729388506065713926e+01) (2, -4.32036644820078474805e-01) (3, 3.66148125229873500075e-01) (4, 1.31202474425721438145e+00) (5, 3.94125200140817422145e-01) (6, 4.67812965317190243564e-01) (7, 6.62997891245908910207e-01) (8, -4.08615455859277165729e+00) (9, 4.59098602995242466296e-01) (10, -2.77963531438417343900e-01) (11, -1.92138444654315398985e-01) (3, 4.31716085779328850869e-01) (4, -2.29241217065859581581e+00) (5, 4.55380525168680216908e-01) (6, 3.85427482693708911565e-01) (7, 3.31272157711670678371e-01) (8, 1.10688360990522340899e+01) (9, 4.65325132657289697313e-01) (10, 1.24229327595705196785e+00) (11, -6.23982781762860816421e-01) 
