FANN_FLO_2.1
num_layers=3
learning_rate=0.100000
connection_rate=1.000000
network_type=0
learning_momentum=0.000000
training_algorithm=2
train_error_function=1
train_stop_function=0
cascade_output_change_fraction=0.010000
quickprop_decay=-0.000100
quickprop_mu=1.750000
rprop_increase_factor=1.200000
rprop_decrease_factor=0.500000
rprop_delta_min=0.000000
rprop_delta_max=50.000000
rprop_delta_zero=0.100000
cascade_output_stagnation_epochs=12
cascade_candidate_change_fraction=0.010000
cascade_candidate_stagnation_epochs=12
cascade_max_out_epochs=150
cascade_min_out_epochs=50
cascade_max_cand_epochs=150
cascade_min_cand_epochs=50
cascade_num_candidate_groups=2
bit_fail_limit=3.49999994039535522461e-01
cascade_candidate_limit=1.00000000000000000000e+03
cascade_weight_multiplier=4.00000005960464477539e-01
cascade_activation_functions_count=10
cascade_activation_functions=3 5 7 8 10 11 14 15 16 17 
cascade_activation_steepnesses_count=4
cascade_activation_steepnesses=2.50000000000000000000e-01 5.00000000000000000000e-01 7.50000000000000000000e-01 1.00000000000000000000e+00 
layer_sizes=3 9 3 
scale_included=0
neurons (num_inputs, activation_function, activation_steepness)=(0, 0, 0.00000000000000000000e+00) (0, 0, 0.00000000000000000000e+00) (0, 0, 0.00000000000000000000e+00) (3, 3, 5.00000000000000000000e-01) (3, 3, 5.00000000000000000000e-01) (3, 3, 5.00000000000000000000e-01) (3, 3, 5.00000000000000000000e-01) (3, 3, 5.00000000000000000000e-01) (3, 3, 5.00000000000000000000e-01) (3, 3, 5.00000000000000000000e-01) (3, 3, 5.00000000000000000000e-01) (0, 3, 0.00000000000000000000e+00) (9, 0, 5.00000000000000000000e-01) (9, 0, 5.00000000000000000000e-01) (0, 0, 0.00000000000000000000e+00) 
connections (connected_to_neuron, weight)=(0, -1.15364432334899902344e+00) (1, -3.18818688392639160156e+00) (2, 1.82695472240447998047e+00) (0, -1.26781616210937500000e+01) (1, 6.58268451690673828125e+00) (2, 9.06451416015625000000e+00) (0, -2.56930303573608398438e+00) (1, -1.77813506126403808594e+00) (2, 3.49235844612121582031e+00) (0, 1.49337988281250000000e+03) (1, 1.49851977539062500000e+03) (2, 1.49851977539062500000e+03) (0, -2.86859583854675292969e+00) (1, -1.04363000392913818359e+00) (2, 9.96748864650726318359e-01) (0, -2.00454139709472656250e+00) (1, -1.27604460716247558594e+00) (2, 2.30179309844970703125e+00) (0, -3.90662860870361328125e+00) (1, 2.63149476051330566406e+00) (2, -1.25023198127746582031e+00) (0, -1.80484366416931152344e+00) (1, 4.44602680206298828125e+00) (2, -5.70364952087402343750e-01) (3, 6.32374000549316406250e+00) (4, -1.17660105228424072266e+00) (5, -8.45815086364746093750e+00) (6, -5.28381884098052978516e-01) (7, 9.01349484920501708984e-02) (8, -1.20221829414367675781e+00) (9, 5.67719697952270507812e+00) (10, 4.03240251541137695312e+00) (11, 2.37519335746765136719e+00) (3, -7.19424724578857421875e+00) (4, 1.57075119018554687500e+00) (5, 1.61140270233154296875e+01) (6, -4.47916775941848754883e-01) (7, 2.14766263961791992188e+00) (8, 1.50120604038238525391e+00) (9, -8.69112968444824218750e+00) (10, -1.70983827114105224609e+00) (11, -6.28426837921142578125e+00) 
