FANN_FLO_2.1
num_layers=3
learning_rate=0.100000
connection_rate=1.000000
network_type=0
learning_momentum=0.000000
training_algorithm=2
train_error_function=1
train_stop_function=0
cascade_output_change_fraction=0.010000
quickprop_decay=-0.000100
quickprop_mu=1.750000
rprop_increase_factor=1.200000
rprop_decrease_factor=0.500000
rprop_delta_min=0.000000
rprop_delta_max=50.000000
rprop_delta_zero=0.100000
cascade_output_stagnation_epochs=12
cascade_candidate_change_fraction=0.010000
cascade_candidate_stagnation_epochs=12
cascade_max_out_epochs=150
cascade_min_out_epochs=50
cascade_max_cand_epochs=150
cascade_min_cand_epochs=50
cascade_num_candidate_groups=2
bit_fail_limit=3.49999994039535522461e-01
cascade_candidate_limit=1.00000000000000000000e+03
cascade_weight_multiplier=4.00000005960464477539e-01
cascade_activation_functions_count=10
cascade_activation_functions=3 5 7 8 10 11 14 15 16 17 
cascade_activation_steepnesses_count=4
cascade_activation_steepnesses=2.50000000000000000000e-01 5.00000000000000000000e-01 7.50000000000000000000e-01 1.00000000000000000000e+00 
layer_sizes=3 9 3 
scale_included=0
neurons (num_inputs, activation_function, activation_steepness)=(0, 0, 0.00000000000000000000e+00) (0, 0, 0.00000000000000000000e+00) (0, 0, 0.00000000000000000000e+00) (3, 3, 5.00000000000000000000e-01) (3, 3, 5.00000000000000000000e-01) (3, 3, 5.00000000000000000000e-01) (3, 3, 5.00000000000000000000e-01) (3, 3, 5.00000000000000000000e-01) (3, 3, 5.00000000000000000000e-01) (3, 3, 5.00000000000000000000e-01) (3, 3, 5.00000000000000000000e-01) (0, 3, 0.00000000000000000000e+00) (9, 0, 5.00000000000000000000e-01) (9, 0, 5.00000000000000000000e-01) (0, 0, 0.00000000000000000000e+00) 
connections (connected_to_neuron, weight)=(0, -2.83249306678771972656e+00) (1, -2.87658452987670898438e+00) (2, 1.09355401992797851562e+00) (0, -6.26048755645751953125e+00) (1, -6.27235829830169677734e-01) (2, 6.09501314163208007812e+00) (0, -4.69449996948242187500e+00) (1, 2.12425017356872558594e+00) (2, 1.09364545345306396484e+00) (0, -2.36024355888366699219e+00) (1, -2.39349901676177978516e-01) (2, 2.46105879545211791992e-01) (0, -9.33075249195098876953e-01) (1, 4.08889865875244140625e+00) (2, -3.36311388015747070312e+00) (0, -3.20197534561157226562e+00) (1, 6.55256128311157226562e+00) (2, -3.17555934190750122070e-01) (0, -2.78951478004455566406e+00) (1, -4.56750616431236267090e-02) (2, 4.98621791601181030273e-01) (0, -2.99958586692810058594e+00) (1, 7.89106190204620361328e-01) (2, 9.72795903682708740234e-01) (3, 9.39267921447753906250e+00) (4, -3.26785874366760253906e+00) (5, 4.52144533395767211914e-01) (6, 2.30906203389167785645e-01) (7, 6.14843511581420898438e+00) (8, 4.08982485532760620117e-01) (9, -1.97302293777465820312e+00) (10, 2.08239853382110595703e-01) (11, 4.39493954181671142578e-01) (3, -1.08977518081665039062e+01) (4, 5.90696811676025390625e+00) (5, 6.03259861469268798828e-01) (6, 5.15938162803649902344e-01) (7, -1.08328094482421875000e+01) (8, 9.66259002685546875000e-01) (9, 4.24827957153320312500e+00) (10, 5.50939559936523437500e-01) (11, -1.71523296833038330078e+00) 
