FANN_FLO_2.1
num_layers=3
learning_rate=0.100000
connection_rate=1.000000
network_type=0
learning_momentum=0.000000
training_algorithm=2
train_error_function=1
train_stop_function=0
cascade_output_change_fraction=0.010000
quickprop_decay=-0.000100
quickprop_mu=1.750000
rprop_increase_factor=1.200000
rprop_decrease_factor=0.500000
rprop_delta_min=0.000000
rprop_delta_max=50.000000
rprop_delta_zero=0.100000
cascade_output_stagnation_epochs=12
cascade_candidate_change_fraction=0.010000
cascade_candidate_stagnation_epochs=12
cascade_max_out_epochs=150
cascade_min_out_epochs=50
cascade_max_cand_epochs=150
cascade_min_cand_epochs=50
cascade_num_candidate_groups=2
bit_fail_limit=3.49999994039535522461e-01
cascade_candidate_limit=1.00000000000000000000e+03
cascade_weight_multiplier=4.00000005960464477539e-01
cascade_activation_functions_count=10
cascade_activation_functions=3 5 7 8 10 11 14 15 16 17 
cascade_activation_steepnesses_count=4
cascade_activation_steepnesses=2.50000000000000000000e-01 5.00000000000000000000e-01 7.50000000000000000000e-01 1.00000000000000000000e+00 
layer_sizes=3 9 3 
scale_included=0
neurons (num_inputs, activation_function, activation_steepness)=(0, 0, 0.00000000000000000000e+00) (0, 0, 0.00000000000000000000e+00) (0, 0, 0.00000000000000000000e+00) (3, 3, 5.00000000000000000000e-01) (3, 3, 5.00000000000000000000e-01) (3, 3, 5.00000000000000000000e-01) (3, 3, 5.00000000000000000000e-01) (3, 3, 5.00000000000000000000e-01) (3, 3, 5.00000000000000000000e-01) (3, 3, 5.00000000000000000000e-01) (3, 3, 5.00000000000000000000e-01) (0, 3, 0.00000000000000000000e+00) (9, 0, 5.00000000000000000000e-01) (9, 0, 5.00000000000000000000e-01) (0, 0, 0.00000000000000000000e+00) 
connections (connected_to_neuron, weight)=(0, -2.60386657714843750000e+00) (1, 5.40049743652343750000e+00) (2, -7.22250580787658691406e-01) (0, 1.50000000000000000000e+02) (1, 1.50000000000000000000e+02) (2, 7.91950130462646484375e+00) (0, -2.29146122932434082031e+00) (1, -8.64780366420745849609e-01) (2, 2.03341960906982421875e+00) (0, 2.70529270172119140625e+00) (1, 7.94048070907592773438e-01) (2, -5.41725099086761474609e-01) (0, -3.08382964134216308594e+00) (1, 3.51593279838562011719e+00) (2, -2.11369061470031738281e+00) (0, -3.17336702346801757812e+00) (1, 2.28225335478782653809e-01) (2, 8.16397547721862792969e-01) (0, -9.25778388977050781250e+00) (1, 1.52133071422576904297e+00) (2, 9.38614749908447265625e+00) (0, -2.95630359649658203125e+00) (1, -2.39132905006408691406e+00) (2, 1.30059468746185302734e+00) (3, 1.89130699634552001953e+00) (4, 1.40391612052917480469e+00) (5, -1.47473745346069335938e+01) (6, 3.40981078147888183594e+00) (7, 4.19033575057983398438e+00) (8, 6.60766458511352539062e+00) (9, -2.54102396965026855469e+00) (10, 8.97424221038818359375e+00) (11, 6.69925808906555175781e-01) (3, -5.40087282657623291016e-01) (4, -6.60078823566436767578e-01) (5, 2.89629878997802734375e+01) (6, -8.86479568481445312500e+00) (7, -6.27123117446899414062e+00) (8, -1.29641437530517578125e+01) (9, 3.73138689994812011719e+00) (10, -1.28237113952636718750e+01) (11, -1.35908484458923339844e+00) 
