FANN_FLO_2.1
num_layers=3
learning_rate=0.100000
connection_rate=1.000000
network_type=0
learning_momentum=0.000000
training_algorithm=2
train_error_function=1
train_stop_function=0
cascade_output_change_fraction=0.010000
quickprop_decay=-0.000100
quickprop_mu=1.750000
rprop_increase_factor=1.200000
rprop_decrease_factor=0.500000
rprop_delta_min=0.000000
rprop_delta_max=50.000000
rprop_delta_zero=0.100000
cascade_output_stagnation_epochs=12
cascade_candidate_change_fraction=0.010000
cascade_candidate_stagnation_epochs=12
cascade_max_out_epochs=150
cascade_min_out_epochs=50
cascade_max_cand_epochs=150
cascade_min_cand_epochs=50
cascade_num_candidate_groups=2
bit_fail_limit=3.49999994039535522461e-01
cascade_candidate_limit=1.00000000000000000000e+03
cascade_weight_multiplier=4.00000005960464477539e-01
cascade_activation_functions_count=10
cascade_activation_functions=3 5 7 8 10 11 14 15 16 17 
cascade_activation_steepnesses_count=4
cascade_activation_steepnesses=2.50000000000000000000e-01 5.00000000000000000000e-01 7.50000000000000000000e-01 1.00000000000000000000e+00 
layer_sizes=3 9 3 
scale_included=0
neurons (num_inputs, activation_function, activation_steepness)=(0, 0, 0.00000000000000000000e+00) (0, 0, 0.00000000000000000000e+00) (0, 0, 0.00000000000000000000e+00) (3, 3, 5.00000000000000000000e-01) (3, 3, 5.00000000000000000000e-01) (3, 3, 5.00000000000000000000e-01) (3, 3, 5.00000000000000000000e-01) (3, 3, 5.00000000000000000000e-01) (3, 3, 5.00000000000000000000e-01) (3, 3, 5.00000000000000000000e-01) (3, 3, 5.00000000000000000000e-01) (0, 3, 0.00000000000000000000e+00) (9, 0, 5.00000000000000000000e-01) (9, 0, 5.00000000000000000000e-01) (0, 0, 0.00000000000000000000e+00) 
connections (connected_to_neuron, weight)=(0, -2.65877366065979003906e+00) (1, -4.18169832229614257812e+00) (2, 3.86874794960021972656e+00) (0, -2.26317358016967773438e+00) (1, -1.61542916297912597656e+00) (2, 3.49916625022888183594e+00) (0, -2.53461766242980957031e+00) (1, -9.72748875617980957031e-01) (2, 3.53846383094787597656e+00) (0, 1.39574468135833740234e+00) (1, 2.12746047973632812500e+00) (2, -2.29619407653808593750e+00) (0, 3.51058274507522583008e-01) (1, -2.75594305992126464844e+00) (2, 1.24200737476348876953e+00) (0, -1.86709296703338623047e+00) (1, -1.63896954059600830078e+00) (2, 3.03206992149353027344e+00) (0, 1.22365093231201171875e+00) (1, 2.90440130233764648438e+00) (2, -3.46772885322570800781e+00) (0, -2.40129256248474121094e+00) (1, 5.62627553939819335938e+00) (2, -5.59719705581665039062e+00) (3, 1.05556230545043945312e+01) (4, -4.62015342712402343750e+00) (5, -3.99621033668518066406e+00) (6, 4.85668659210205078125e+00) (7, -4.34789466857910156250e+00) (8, -1.26567220687866210938e+00) (9, 3.49915695190429687500e+00) (10, 6.04740238189697265625e+00) (11, 1.78647184371948242188e+00) (3, -1.17854862213134765625e+01) (4, 1.43270969390869140625e+01) (5, 2.20434689521789550781e+00) (6, -5.04402446746826171875e+00) (7, -1.96391892433166503906e+00) (8, 3.22954463958740234375e+00) (9, -5.69189834594726562500e+00) (10, -1.09954652786254882812e+01) (11, -2.64323830604553222656e+00) 
