FANN_FLO_2.1
num_layers=3
learning_rate=0.100000
connection_rate=1.000000
network_type=0
learning_momentum=0.000000
training_algorithm=2
train_error_function=1
train_stop_function=0
cascade_output_change_fraction=0.010000
quickprop_decay=-0.000100
quickprop_mu=1.750000
rprop_increase_factor=1.200000
rprop_decrease_factor=0.500000
rprop_delta_min=0.000000
rprop_delta_max=50.000000
rprop_delta_zero=0.100000
cascade_output_stagnation_epochs=12
cascade_candidate_change_fraction=0.010000
cascade_candidate_stagnation_epochs=12
cascade_max_out_epochs=150
cascade_min_out_epochs=50
cascade_max_cand_epochs=150
cascade_min_cand_epochs=50
cascade_num_candidate_groups=2
bit_fail_limit=3.49999999999999977796e-01
cascade_candidate_limit=1.00000000000000000000e+03
cascade_weight_multiplier=4.00000000000000022204e-01
cascade_activation_functions_count=10
cascade_activation_functions=3 5 7 8 10 11 14 15 16 17 
cascade_activation_steepnesses_count=4
cascade_activation_steepnesses=2.50000000000000000000e-01 5.00000000000000000000e-01 7.50000000000000000000e-01 1.00000000000000000000e+00 
layer_sizes=2 9 2 
scale_included=0
neurons (num_inputs, activation_function, activation_steepness)=(0, 0, 0.00000000000000000000e+00) (0, 0, 0.00000000000000000000e+00) (2, 3, 5.00000000000000000000e-01) (2, 3, 5.00000000000000000000e-01) (2, 3, 5.00000000000000000000e-01) (2, 3, 5.00000000000000000000e-01) (2, 3, 5.00000000000000000000e-01) (2, 3, 5.00000000000000000000e-01) (2, 3, 5.00000000000000000000e-01) (2, 3, 5.00000000000000000000e-01) (0, 3, 0.00000000000000000000e+00) (9, 0, 5.00000000000000000000e-01) (0, 0, 0.00000000000000000000e+00) 
connections (connected_to_neuron, weight)=(0, 4.45840135216712951660e-02) (1, -7.64851719141006469727e-02) (0, -8.63358303904533386230e-02) (1, -4.62997034192085266113e-02) (0, 4.09398451447486877441e-02) (1, 7.58610591292381286621e-02) (0, -3.24358046054840087891e-03) (1, 8.51502195000648498535e-02) (0, -8.02875906229019165039e-02) (1, 6.50368630886077880859e-03) (0, -9.25324186682701110840e-02) (1, 7.67550617456436157227e-03) (0, 2.16424465179443359375e-03) (1, -2.55080312490463256836e-02) (0, 8.65021571516990661621e-02) (1, 4.18412312865257263184e-02) (2, 2.56035253405570983887e-02) (3, -8.16785395145416259766e-02) (4, 2.88460031151771545410e-02) (5, 1.47706717252731323242e-02) (6, 5.06398901343345642090e-02) (7, -9.54060330986976623535e-02) (8, -8.91528651118278503418e-02) (9, 7.86658376455307006836e-03) (10, 1.37399211525917053223e-02) 
