FANN_FLO_2.1
num_layers=3
learning_rate=0.100000
connection_rate=1.000000
network_type=0
learning_momentum=0.000000
training_algorithm=2
train_error_function=1
train_stop_function=0
cascade_output_change_fraction=0.010000
quickprop_decay=-0.000100
quickprop_mu=1.750000
rprop_increase_factor=1.200000
rprop_decrease_factor=0.500000
rprop_delta_min=0.000000
rprop_delta_max=50.000000
rprop_delta_zero=0.100000
cascade_output_stagnation_epochs=12
cascade_candidate_change_fraction=0.010000
cascade_candidate_stagnation_epochs=12
cascade_max_out_epochs=150
cascade_min_out_epochs=50
cascade_max_cand_epochs=150
cascade_min_cand_epochs=50
cascade_num_candidate_groups=2
bit_fail_limit=3.49999994039535522461e-01
cascade_candidate_limit=1.00000000000000000000e+03
cascade_weight_multiplier=4.00000005960464477539e-01
cascade_activation_functions_count=10
cascade_activation_functions=3 5 7 8 10 11 14 15 16 17 
cascade_activation_steepnesses_count=4
cascade_activation_steepnesses=2.50000000000000000000e-01 5.00000000000000000000e-01 7.50000000000000000000e-01 1.00000000000000000000e+00 
layer_sizes=3 5 3 
scale_included=0
neurons (num_inputs, activation_function, activation_steepness)=(0, 0, 0.00000000000000000000e+00) (0, 0, 0.00000000000000000000e+00) (0, 0, 0.00000000000000000000e+00) (3, 3, 5.00000000000000000000e-01) (3, 3, 5.00000000000000000000e-01) (3, 3, 5.00000000000000000000e-01) (3, 3, 5.00000000000000000000e-01) (0, 3, 0.00000000000000000000e+00) (5, 0, 5.00000000000000000000e-01) (5, 0, 5.00000000000000000000e-01) (0, 0, 0.00000000000000000000e+00) 
connections (connected_to_neuron, weight)=(0, -2.36492657661437988281e+00) (1, 4.84141731262207031250e+00) (2, -4.48791921138763427734e-01) (0, -3.50860095024108886719e+00) (1, -1.01836526393890380859e+00) (2, 3.38033032417297363281e+00) (0, -3.32788729667663574219e+00) (1, 3.37166118621826171875e+00) (2, -1.40587651729583740234e+00) (0, -3.69767093658447265625e+00) (1, -6.96134269237518310547e-01) (2, 8.32710087299346923828e-01) (3, 7.55040705204010009766e-01) (4, -6.37554740905761718750e+00) (5, 4.75129175186157226562e+00) (6, 3.22291874885559082031e+00) (7, 1.79300892353057861328e+00) (3, 1.16783642768859863281e+00) (4, 1.35424966812133789062e+01) (5, -8.44157600402832031250e+00) (6, -1.90424001216888427734e+00) (7, -4.64903497695922851562e+00) 
