FANN_FLO_2.1
num_layers=3
learning_rate=0.100000
connection_rate=1.000000
network_type=0
learning_momentum=0.000000
training_algorithm=2
train_error_function=1
train_stop_function=0
cascade_output_change_fraction=0.010000
quickprop_decay=-0.000100
quickprop_mu=1.750000
rprop_increase_factor=1.200000
rprop_decrease_factor=0.500000
rprop_delta_min=0.000000
rprop_delta_max=50.000000
rprop_delta_zero=0.100000
cascade_output_stagnation_epochs=12
cascade_candidate_change_fraction=0.010000
cascade_candidate_stagnation_epochs=12
cascade_max_out_epochs=150
cascade_min_out_epochs=50
cascade_max_cand_epochs=150
cascade_min_cand_epochs=50
cascade_num_candidate_groups=2
bit_fail_limit=3.49999994039535522461e-01
cascade_candidate_limit=1.00000000000000000000e+03
cascade_weight_multiplier=4.00000005960464477539e-01
cascade_activation_functions_count=10
cascade_activation_functions=3 5 7 8 10 11 14 15 16 17 
cascade_activation_steepnesses_count=4
cascade_activation_steepnesses=2.50000000000000000000e-01 5.00000000000000000000e-01 7.50000000000000000000e-01 1.00000000000000000000e+00 
layer_sizes=3 9 3 
scale_included=0
neurons (num_inputs, activation_function, activation_steepness)=(0, 0, 0.00000000000000000000e+00) (0, 0, 0.00000000000000000000e+00) (0, 0, 0.00000000000000000000e+00) (3, 3, 5.00000000000000000000e-01) (3, 3, 5.00000000000000000000e-01) (3, 3, 5.00000000000000000000e-01) (3, 3, 5.00000000000000000000e-01) (3, 3, 5.00000000000000000000e-01) (3, 3, 5.00000000000000000000e-01) (3, 3, 5.00000000000000000000e-01) (3, 3, 5.00000000000000000000e-01) (0, 3, 0.00000000000000000000e+00) (9, 0, 5.00000000000000000000e-01) (9, 0, 5.00000000000000000000e-01) (0, 0, 0.00000000000000000000e+00) 
connections (connected_to_neuron, weight)=(0, -1.20061054229736328125e+01) (1, 9.74165534973144531250e+00) (2, 6.69355583190917968750e+00) (0, -1.17326331138610839844e+00) (1, 4.41015195846557617188e+00) (2, -1.53825998306274414062e-01) (0, -4.31327486038208007812e+00) (1, 3.57877945899963378906e+00) (2, -2.31401264667510986328e-01) (0, -2.79340434074401855469e+00) (1, 6.64708137512207031250e+00) (2, -6.50035142898559570312e-01) (0, -5.86506903171539306641e-01) (1, 4.29755973815917968750e+00) (2, -4.65975189208984375000e+00) (0, -6.38785219192504882812e+00) (1, -1.14589869976043701172e-01) (2, 1.71818554401397705078e+00) (0, -5.37281751632690429688e+00) (1, -2.29617857933044433594e+00) (2, 7.28244733810424804688e+00) (0, -2.08065295219421386719e+00) (1, -3.73221230506896972656e+00) (2, 2.99698901176452636719e+00) (3, -6.69105410575866699219e-01) (4, 9.25102174282073974609e-01) (5, 8.71746540069580078125e-01) (6, 1.69659972190856933594e+00) (7, 7.88287401199340820312e+00) (8, -1.43232509493827819824e-01) (9, -7.13725090026855468750e+00) (10, 5.22622299194335937500e+00) (11, 2.16901612281799316406e+00) (3, 1.07394063472747802734e+00) (4, -6.28925144672393798828e-01) (5, 1.31165993213653564453e+00) (6, -9.95639503002166748047e-01) (7, -1.58095693588256835938e+01) (8, 1.37310564517974853516e+00) (9, 1.19382467269897460938e+01) (10, -7.18062114715576171875e+00) (11, -5.11636590957641601562e+00) 
