FANN_FLO_2.1
num_layers=3
learning_rate=0.100000
connection_rate=1.000000
network_type=0
learning_momentum=0.000000
training_algorithm=2
train_error_function=1
train_stop_function=0
cascade_output_change_fraction=0.010000
quickprop_decay=-0.000100
quickprop_mu=1.750000
rprop_increase_factor=1.200000
rprop_decrease_factor=0.500000
rprop_delta_min=0.000000
rprop_delta_max=50.000000
rprop_delta_zero=0.100000
cascade_output_stagnation_epochs=12
cascade_candidate_change_fraction=0.010000
cascade_candidate_stagnation_epochs=12
cascade_max_out_epochs=150
cascade_min_out_epochs=50
cascade_max_cand_epochs=150
cascade_min_cand_epochs=50
cascade_num_candidate_groups=2
bit_fail_limit=3.49999994039535522461e-01
cascade_candidate_limit=1.00000000000000000000e+03
cascade_weight_multiplier=4.00000005960464477539e-01
cascade_activation_functions_count=10
cascade_activation_functions=3 5 7 8 10 11 14 15 16 17 
cascade_activation_steepnesses_count=4
cascade_activation_steepnesses=2.50000000000000000000e-01 5.00000000000000000000e-01 7.50000000000000000000e-01 1.00000000000000000000e+00 
layer_sizes=3 5 3 
scale_included=0
neurons (num_inputs, activation_function, activation_steepness)=(0, 0, 0.00000000000000000000e+00) (0, 0, 0.00000000000000000000e+00) (0, 0, 0.00000000000000000000e+00) (3, 3, 5.00000000000000000000e-01) (3, 3, 5.00000000000000000000e-01) (3, 3, 5.00000000000000000000e-01) (3, 3, 5.00000000000000000000e-01) (0, 3, 0.00000000000000000000e+00) (5, 0, 5.00000000000000000000e-01) (5, 0, 5.00000000000000000000e-01) (0, 0, 0.00000000000000000000e+00) 
connections (connected_to_neuron, weight)=(0, 7.91112601757049560547e-01) (1, 7.47681474685668945312e+00) (2, -4.43025255203247070312e+00) (0, -1.94895243644714355469e+00) (1, -3.37356495857238769531e+00) (2, 2.63751983642578125000e+00) (0, 1.44619857892394065857e-02) (1, 3.81985044479370117188e+00) (2, -4.45379734039306640625e+00) (0, -6.13581752777099609375e+00) (1, -2.29745769500732421875e+00) (2, 7.93450546264648437500e+00) (3, 1.48406231403350830078e+00) (4, 8.43633747100830078125e+00) (5, 1.19223413467407226562e+01) (6, -5.53869628906250000000e+00) (7, -2.51371730118989944458e-02) (3, 1.92653918266296386719e+00) (4, -3.53703451156616210938e+00) (5, -1.50106401443481445312e+01) (6, 1.07492742538452148438e+01) (7, -6.06341457366943359375e+00) 
