FANN_FLO_2.1
num_layers=3
learning_rate=0.100000
connection_rate=1.000000
network_type=0
learning_momentum=0.000000
training_algorithm=2
train_error_function=1
train_stop_function=0
cascade_output_change_fraction=0.010000
quickprop_decay=-0.000100
quickprop_mu=1.750000
rprop_increase_factor=1.200000
rprop_decrease_factor=0.500000
rprop_delta_min=0.000000
rprop_delta_max=50.000000
rprop_delta_zero=0.100000
cascade_output_stagnation_epochs=12
cascade_candidate_change_fraction=0.010000
cascade_candidate_stagnation_epochs=12
cascade_max_out_epochs=150
cascade_min_out_epochs=50
cascade_max_cand_epochs=150
cascade_min_cand_epochs=50
cascade_num_candidate_groups=2
bit_fail_limit=3.49999994039535522461e-01
cascade_candidate_limit=1.00000000000000000000e+03
cascade_weight_multiplier=4.00000005960464477539e-01
cascade_activation_functions_count=10
cascade_activation_functions=3 5 7 8 10 11 14 15 16 17 
cascade_activation_steepnesses_count=4
cascade_activation_steepnesses=2.50000000000000000000e-01 5.00000000000000000000e-01 7.50000000000000000000e-01 1.00000000000000000000e+00 
layer_sizes=3 5 3 
scale_included=0
neurons (num_inputs, activation_function, activation_steepness)=(0, 0, 0.00000000000000000000e+00) (0, 0, 0.00000000000000000000e+00) (0, 0, 0.00000000000000000000e+00) (3, 3, 5.00000000000000000000e-01) (3, 3, 5.00000000000000000000e-01) (3, 3, 5.00000000000000000000e-01) (3, 3, 5.00000000000000000000e-01) (0, 3, 0.00000000000000000000e+00) (5, 0, 5.00000000000000000000e-01) (5, 0, 5.00000000000000000000e-01) (0, 0, 0.00000000000000000000e+00) 
connections (connected_to_neuron, weight)=(0, -5.62152624130249023438e-01) (1, 3.18615555763244628906e+00) (2, -3.07435417175292968750e+00) (0, -2.96039676666259765625e+00) (1, -2.97638750076293945312e+00) (2, 2.53534746170043945312e+00) (0, -7.61305522918701171875e+00) (1, -7.84178256988525390625e-01) (2, 8.06846618652343750000e+00) (0, -2.18604373931884765625e+00) (1, -1.16981709003448486328e+00) (2, 1.81733763217926025391e+00) (3, 9.72950649261474609375e+00) (4, 9.04839324951171875000e+00) (5, -2.45742464065551757812e+00) (6, -7.32674503326416015625e+00) (7, 1.34575760364532470703e+00) (3, -1.27487955093383789062e+01) (4, -9.43742656707763671875e+00) (5, 6.92346382141113281250e+00) (6, 1.22429647445678710938e+01) (7, -4.36838674545288085938e+00) 
