FANN_FLO_2.1
num_layers=3
learning_rate=0.100000
connection_rate=1.000000
network_type=0
learning_momentum=0.000000
training_algorithm=2
train_error_function=1
train_stop_function=0
cascade_output_change_fraction=0.010000
quickprop_decay=-0.000100
quickprop_mu=1.750000
rprop_increase_factor=1.200000
rprop_decrease_factor=0.500000
rprop_delta_min=0.000000
rprop_delta_max=50.000000
rprop_delta_zero=0.100000
cascade_output_stagnation_epochs=12
cascade_candidate_change_fraction=0.010000
cascade_candidate_stagnation_epochs=12
cascade_max_out_epochs=150
cascade_min_out_epochs=50
cascade_max_cand_epochs=150
cascade_min_cand_epochs=50
cascade_num_candidate_groups=2
bit_fail_limit=3.49999994039535522461e-01
cascade_candidate_limit=1.00000000000000000000e+03
cascade_weight_multiplier=4.00000005960464477539e-01
cascade_activation_functions_count=10
cascade_activation_functions=3 5 7 8 10 11 14 15 16 17 
cascade_activation_steepnesses_count=4
cascade_activation_steepnesses=2.50000000000000000000e-01 5.00000000000000000000e-01 7.50000000000000000000e-01 1.00000000000000000000e+00 
layer_sizes=3 5 3 
scale_included=0
neurons (num_inputs, activation_function, activation_steepness)=(0, 0, 0.00000000000000000000e+00) (0, 0, 0.00000000000000000000e+00) (0, 0, 0.00000000000000000000e+00) (3, 3, 5.00000000000000000000e-01) (3, 3, 5.00000000000000000000e-01) (3, 3, 5.00000000000000000000e-01) (3, 3, 5.00000000000000000000e-01) (0, 3, 0.00000000000000000000e+00) (5, 0, 5.00000000000000000000e-01) (5, 0, 5.00000000000000000000e-01) (0, 0, 0.00000000000000000000e+00) 
connections (connected_to_neuron, weight)=(0, -6.19834375381469726562e+00) (1, 1.35052537918090820312e+00) (2, 9.96987298130989074707e-02) (0, -2.44134712219238281250e+00) (1, 3.68463134765625000000e+00) (2, -1.58437430858612060547e-01) (0, -4.76131629943847656250e+00) (1, 3.93946623802185058594e+00) (2, -1.27765786647796630859e+00) (0, -4.32893896102905273438e+00) (1, -1.72467267513275146484e+00) (2, 3.96622419357299804688e+00) (3, 2.18155097961425781250e+00) (4, 1.44083356857299804688e+00) (5, 2.69675302505493164062e+00) (6, -4.21748304367065429688e+00) (7, 6.03375792503356933594e-01) (3, -1.89795279502868652344e+00) (4, 6.41003966331481933594e-01) (5, -5.62814188003540039062e+00) (6, 9.96484184265136718750e+00) (7, -2.15657019615173339844e+00) 
