FANN_FLO_2.1
num_layers=3
learning_rate=0.100000
connection_rate=1.000000
network_type=0
learning_momentum=0.000000
training_algorithm=2
train_error_function=1
train_stop_function=0
cascade_output_change_fraction=0.010000
quickprop_decay=-0.000100
quickprop_mu=1.750000
rprop_increase_factor=1.200000
rprop_decrease_factor=0.500000
rprop_delta_min=0.000000
rprop_delta_max=50.000000
rprop_delta_zero=0.100000
cascade_output_stagnation_epochs=12
cascade_candidate_change_fraction=0.010000
cascade_candidate_stagnation_epochs=12
cascade_max_out_epochs=150
cascade_min_out_epochs=50
cascade_max_cand_epochs=150
cascade_min_cand_epochs=50
cascade_num_candidate_groups=2
bit_fail_limit=3.49999994039535522461e-01
cascade_candidate_limit=1.00000000000000000000e+03
cascade_weight_multiplier=4.00000005960464477539e-01
cascade_activation_functions_count=10
cascade_activation_functions=3 5 7 8 10 11 14 15 16 17 
cascade_activation_steepnesses_count=4
cascade_activation_steepnesses=2.50000000000000000000e-01 5.00000000000000000000e-01 7.50000000000000000000e-01 1.00000000000000000000e+00 
layer_sizes=3 9 3 
scale_included=0
neurons (num_inputs, activation_function, activation_steepness)=(0, 0, 0.00000000000000000000e+00) (0, 0, 0.00000000000000000000e+00) (0, 0, 0.00000000000000000000e+00) (3, 3, 5.00000000000000000000e-01) (3, 3, 5.00000000000000000000e-01) (3, 3, 5.00000000000000000000e-01) (3, 3, 5.00000000000000000000e-01) (3, 3, 5.00000000000000000000e-01) (3, 3, 5.00000000000000000000e-01) (3, 3, 5.00000000000000000000e-01) (3, 3, 5.00000000000000000000e-01) (0, 3, 0.00000000000000000000e+00) (9, 0, 5.00000000000000000000e-01) (9, 0, 5.00000000000000000000e-01) (0, 0, 0.00000000000000000000e+00) 
connections (connected_to_neuron, weight)=(0, -3.14880347251892089844e+00) (1, 1.45180869102478027344e+00) (2, -5.31653985381126403809e-02) (0, -8.05150032043457031250e-01) (1, 6.22514581680297851562e+00) (2, -7.12349843978881835938e+00) (0, -1.02741451263427734375e+01) (1, -5.44672131538391113281e-01) (2, 7.77327537536621093750e+00) (0, 1.49995697021484375000e+02) (1, 1.49999450683593750000e+02) (2, 1.49995300292968750000e+02) (0, -3.75462412834167480469e+00) (1, 2.97655224800109863281e+00) (2, 1.35342848300933837891e+00) (0, -1.80131578445434570312e+00) (1, -2.99711513519287109375e+00) (2, 2.56800818443298339844e+00) (0, -7.03333234786987304688e+00) (1, -4.26364421844482421875e+00) (2, 9.84246349334716796875e+00) (0, -3.77145171165466308594e+00) (1, 1.94690895080566406250e+00) (2, 1.15361891686916351318e-01) (3, 4.95937883853912353516e-01) (4, 1.00857057571411132812e+01) (5, 1.40601348876953125000e+00) (6, 2.02827239036560058594e+00) (7, 1.50775372982025146484e+00) (8, 6.24851036071777343750e+00) (9, -8.36344146728515625000e+00) (10, -6.91694319248199462891e-01) (11, 1.28722357749938964844e+00) (3, 2.87622880935668945312e+00) (4, -2.13884391784667968750e+01) (5, -2.70091915130615234375e+00) (6, -2.38870239257812500000e+00) (7, -3.03899757564067840576e-02) (8, -1.00704946517944335938e+01) (9, 1.39458208084106445312e+01) (10, 2.22649931907653808594e+00) (11, -3.73183774948120117188e+00) 
